#ifndef _WEIGHTS_h
#define _WEIGHTS_h
float nn_bias_in[1][64] = {{5.236398428678512573e-02,-6.520424038171768188e-02,7.125921547412872314e-02,5.689198151230812073e-02,6.088293716311454773e-02,-3.513826057314872742e-02,9.346458315849304199e-02,-8.126133680343627930e-02,8.410952985286712646e-02,-1.205313131213188171e-01,6.592964380979537964e-02,2.996272966265678406e-02,9.688094258308410645e-02,-7.544270157814025879e-02,6.499505043029785156e-02,-1.063294410705566406e-01,-1.922204345464706421e-01,5.862035229802131653e-02,5.830560624599456787e-02,8.047475665807723999e-02,-4.857584461569786072e-02,-2.093286998569965363e-02,9.501433372497558594e-02,8.737465739250183105e-02,7.686146348714828491e-02,9.770166128873825073e-02,4.907714203000068665e-02,6.420266628265380859e-02,1.496110670268535614e-02,-1.200598627328872681e-01,8.928123116493225098e-02,-3.101166570559144020e-03,2.448731288313865662e-02,-1.200447906740009785e-03,7.084928452968597412e-02,-1.101169213652610779e-01,-5.739093199372291565e-02,1.017568334937095642e-01,3.882615268230438232e-02,-7.446597516536712646e-02,9.263138473033905029e-02,-1.174779608845710754e-01,6.001586094498634338e-02,-2.822076342999935150e-02,4.481074586510658264e-02,5.653812736272811890e-02,-8.574044704437255859e-02,8.345988392829895020e-02,4.485737532377243042e-02,-1.517865806818008423e-02,7.924301177263259888e-02,-4.948061704635620117e-02,4.414886981248855591e-02,7.703619450330734253e-02,-3.272694349288940430e-02,1.071969419717788696e-02,9.114105254411697388e-02,8.666364103555679321e-02,7.889177650213241577e-02,5.044483765959739685e-02,6.807634979486465454e-02,-5.688679870218038559e-03,-7.767928391695022583e-02,-2.945324813481420279e-04}};
float nn_bias_out[1][2] = {{3.830788284540176392e-02,8.320989459753036499e-02}};
float nn_w1[2][64] = {{-8.587270043790340424e-03,-2.390684983311075484e-09,-1.794703863561153412e-02,1.609951704740524292e-01,-5.473345145583152771e-02,-8.859681896865367889e-03,-2.544857934117317200e-02,-1.075980908353812993e-04,2.291288524866104126e-01,4.774873331189155579e-02,1.843160092830657959e-01,1.210712343454360962e-01,-2.556030452251434326e-02,8.104287832975387573e-02,1.015313193202018738e-01,8.403567597270011902e-03,5.160162225365638733e-02,-1.611226983368396759e-02,7.539772987365722656e-02,2.173236310482025146e-01,-1.001547649502754211e-02,-1.300258759329153690e-06,-2.457681670784950256e-02,2.389556616544723511e-01,-2.037036977708339691e-02,-6.456436216831207275e-02,1.321639269590377808e-01,-6.332333199679851532e-03,-2.707615494728088379e-03,1.014510542154312134e-02,2.248647511005401611e-01,-2.755597847681201529e-07,6.511779129505157471e-02,4.954088944941759109e-05,-1.457388140261173248e-02,3.066462813876569271e-04,-3.483065962791442871e-02,-2.758459933102130890e-02,1.673604846000671387e-01,-2.275187944178469479e-05,-4.438963159918785095e-02,1.117431744933128357e-02,1.349317431449890137e-01,-2.392583061009645462e-03,-1.155982073396444321e-02,-2.115712501108646393e-02,1.448614522814750671e-03,2.395908832550048828e-01,1.246703043580055237e-01,8.331028372049331665e-02,-2.020880207419395447e-02,-6.545288670167792588e-06,1.264460980892181396e-01,1.806194521486759186e-02,-1.067532459273934364e-03,6.801421195268630981e-02,-5.685954913496971130e-02,-2.364924363791942596e-02,2.342192530632019043e-01,4.712006077170372009e-02,5.748147144913673401e-02,-4.319275514509668401e-13,3.020442556589841843e-03,-1.581731624901294708e-02},{-9.692540625110268593e-04,1.521234982647001743e-03,-6.105149164795875549e-03,7.566487789154052734e-02,-3.644229611381888390e-03,-2.145607140846550465e-04,-5.192915350198745728e-02,2.132931910455226898e-02,1.449458599090576172e-01,-4.291167482733726501e-02,1.124023199081420898e-01,-2.860039472579956055e-02,-1.433931104838848114e-02,7.353917695581912994e-03,6.082021817564964294e-02,-1.395845320075750351e-04,7.943706214427947998e-02,-6.565650552511215210e-02,1.882942393422126770e-02,9.513776004314422607e-02,-5.961641669273376465e-02,-7.135128253139555454e-04,-1.125667430460453033e-02,1.130142137408256531e-01,-3.237653151154518127e-02,-8.109452202916145325e-03,6.378663331270217896e-02,2.102313376963138580e-02,-5.893650650978088379e-02,-1.249143294990062714e-02,1.256030797958374023e-01,4.675424065680999774e-07,3.463074192404747009e-02,-2.293992874911054969e-04,-6.273054517805576324e-03,4.292545467615127563e-02,-5.074317753314971924e-02,-5.110669136047363281e-02,-5.589315667748451233e-02,1.348767313174903393e-03,-7.660903502255678177e-03,-1.487438936464968720e-07,6.281678378582000732e-02,5.862450222004874917e-34,-5.259386263787746429e-03,-6.607888732105493546e-03,2.145192353054881096e-03,1.156753227114677429e-01,7.160116732120513916e-02,-2.489272132515907288e-02,-8.360567502677440643e-03,2.767269616015255451e-04,6.449112296104431152e-02,-2.970145083963871002e-02,-3.474108129739761353e-02,-6.884888559579849243e-02,-8.240909315645694733e-03,-4.856048896908760071e-02,9.544132649898529053e-02,-5.055224150419235229e-02,2.826118096709251404e-02,-1.249289311999746133e-07,-7.175638643275306094e-07,5.840540677309036255e-02}};
float nn_w2[64][2] = {{1.099836640059947968e-02,3.024754673242568970e-02},{-5.001751560484990478e-05,-6.461104005575180054e-02},{2.153144031763076782e-02,5.506640765815973282e-03},{-1.708073914051055908e-01,2.449862286448478699e-02},{2.053570002317428589e-02,-2.531656809151172638e-02},{-3.534435480833053589e-02,5.127338692545890808e-02},{5.536882206797599792e-02,-2.398035954684019089e-03},{1.940258033573627472e-02,5.824538692831993103e-02},{-2.715137600898742676e-01,1.152155920863151550e-02},{-2.150770975276827812e-03,9.057471528649330139e-03},{-2.131181657314300537e-01,7.267145812511444092e-02},{-1.255449354648590088e-01,-2.482992410659790039e-02},{8.211522549390792847e-02,-4.273675382137298584e-03},{-1.992210187017917633e-02,2.231692336499691010e-02},{-1.018617525696754456e-01,4.529060795903205872e-02},{7.137838006019592285e-02,1.620986685156822205e-02},{8.933544903993606567e-02,6.517016142606735229e-02},{1.851570978760719299e-02,-2.111093373969197273e-03},{-6.221512705087661743e-02,7.504010200500488281e-02},{-2.185909599065780640e-01,7.835987210273742676e-02},{-1.065820828080177307e-02,8.327817777171730995e-04},{-6.001863628625869751e-02,-2.378656156361103058e-02},{4.747391119599342346e-02,2.067838050425052643e-02},{-2.347798198461532593e-01,9.838167577981948853e-02},{2.888845838606357574e-02,-2.799093723297119141e-03},{3.785422816872596741e-02,-4.063341300934553146e-03},{-1.351077705621719360e-01,5.150605365633964539e-02},{7.006635889410972595e-03,6.861395202577114105e-03},{7.032056339085102081e-03,5.320005118846893311e-02},{3.958234563469886780e-02,-3.509200876578688622e-03},{-2.252799719572067261e-01,9.553526341915130615e-02},{-6.882739853608654812e-06,-1.989444158971309662e-02},{-6.675131618976593018e-02,4.632086679339408875e-02},{-4.365067929029464722e-03,-4.877958819270133972e-02},{1.692923717200756073e-02,3.870563348755240440e-03},{-2.831324469298124313e-03,4.408918786793947220e-03},{-6.833796203136444092e-02,3.198045596946030855e-04},{6.423457711935043335e-02,-1.783670624718070030e-03},{-1.594842225313186646e-01,4.642539843916893005e-02},{7.741296198219060898e-03,-3.238434670493006706e-03},{3.326128423213958740e-02,-3.389466088265180588e-03},{7.381467521190643311e-02,2.131849541342489829e-08},{-1.355094909667968750e-01,5.381617322564125061e-02},{-2.243273658677935600e-03,-9.288203539625783378e-10},{1.203326229006052017e-02,-8.592694066464900970e-03},{1.733876951038837433e-02,-6.483267992734909058e-02},{5.623468011617660522e-02,-4.644383490085601807e-02},{-2.503816485404968262e-01,9.208399057388305664e-02},{-1.314504891633987427e-01,7.257942855358123779e-02},{-4.499914869666099548e-02,1.927636377513408661e-02},{2.193745970726013184e-02,1.453785574994981289e-03},{4.440528899431228638e-02,4.031066782772541046e-03},{-1.570496708154678345e-01,-5.358132719993591309e-02},{-2.292514313012361526e-03,3.714605420827865601e-02},{-1.066703931428492069e-03,5.997437611222267151e-02},{-6.315828859806060791e-02,2.000512368977069855e-02},{4.078624024987220764e-02,-3.147308947518467903e-03},{4.634597897529602051e-02,-1.424437970854341984e-03},{-2.391183674335479736e-01,8.676788210868835449e-02},{-3.247675299644470215e-02,6.279121339321136475e-02},{-4.941640421748161316e-02,4.714290052652359009e-02},{-7.905430088328557758e-09,-3.409164771437644958e-02},{7.503828406333923340e-02,8.814861997961997986e-03},{-8.122472465038299561e-02,7.570788729935884476e-03}};
#endif
